svm_type nu_svr
kernel_type rbf
gamma 0.25
nr_class 2
total_sv 80
rho -3.1721209345514501
SV
4.8226605954040593 1:0.96850191 2:0.987725 3:0.97873173 4:0.77887394 5:0.89069139 6:0.94338905 7:0.91254722 8:0.6999602 9:0.6850507 10:0.6259447 11:0.72895326 12:0.85589444 13:0.85978235 14:0.8351786 15:0.89997052 16:0.79260953 17:0.53033196 18:-0.1355708 19:0.1717975 20:0.47467642 21:0.25000828 22:-0.5834073 23:-0.68902818 24:0.10032568 25:-0.091236645 26:0.43048503 27:0.58221624 28:0.72896746 29:0.61642601 30:0.30959455 31:-0.091327486 32:-0.75646231 
3.5808481269589407 1:0.96713688 2:0.99463289 3:0.99406311 4:0.97531469 5:0.97183445 6:0.95687277 7:0.95053349 8:0.79742835 9:0.69726169 10:0.74298525 11:0.79179581 12:0.89908687 13:0.85989496 14:0.7350845 15:0.85524827 16:0.72091697 17:0.36881198 18:0.6164875 19:0.55416561 20:0.73949356 21:0.51826183 22:-0.013414588 23:-0.35305624 24:0.3131596 25:-0.29345522 26:-0.2921057 27:0.32303899 28:0.64875521 29:0.54910744 30:0.31704826 31:-0.065749279 32:-0.63375689 
5.9190541633863347 1:0.57796698 2:0.62702257 3:0.91371647 4:0.99430676 5:0.98866264 6:0.99669749 7:0.99550064 8:0.94152337 9:0.92548345 10:0.89553502 11:0.7667568 12:0.9327342 13:0.82966637 14:0.48218712 15:0.61884945 16:0.38278475 17:0.27773603 18:0.30892067 19:-0.31782077 20:-0.24993008 21:0.56392946 22:0.60078154 23:0.5671125 24:0.83259888 25:0.10079467 26:0.23369326 27:0.17999971 28:0.54368112 29:0.93956852 30:0.85951495 31:0.418647 32:0.055682761 
-1.8969402793517389 1:0.96964833 2:0.9940071 3:0.99534976 4:0.95835406 5:0.95327954 6:0.96659654 7:0.95136743 8:0.77348334 9:0.671104 10:0.71887087 11:0.77598007 12:0.88727696 13:0.83548983 14:0.70901372 15:0.78154541 16:0.70728117 17:0.38154483 18:0.52948638 19:0.48257326 20:0.70682847 21:0.50926824 22:-0.18876998 23:-0.50299397 24:0.097922426 25:-0.075788425 26:0.14440601 27:0.59669173 28:0.67133027 29:0.56930686 30:0.29691434 31:-0.07250696 32:-0.65403146 
-4.1853335762815691 1:0.9330459 2:0.89177906 3:0.65622988 4:0.67975393 5:0.82501157 6:0.88523971 7:0.91525996 8:0.72956637 9:0.63982249 10:0.75499454 11:0.80732438 12:0.90242305 13:0.90660465 14:0.80686615 15:0.86326952 16:0.82154539 17:0.68187669 18:0.15184618 19:0.41887181 20:0.73702518 21:0.252093 22:-0.62866656 23:-0.59815 24:-0.0013081663 25:-0.30675696 26:0.24309459 27:0.68015441 28:0.73053871 29:0.58606515 30:0.34321434 31:-0.059540561 32:-0.69328032 
3.4631141121700972 1:0.19364774 2:0.30363283 3:0.84444668 4:0.97539519 5:0.88838987 6:0.89554245 7:0.98673083 8:0.99331147 9:0.94961546 10:0.88579029 11:-0.35478051 12:-0.54637503 13:0.46923687 14:0.77964552 15:0.93350129 16:0.98152704 17:-0.20662553 18:-0.7963807 19:0.32359272 20:0.46561625 21:-0.35174768 22:-0.19287709 23:0.56799314 24:0.14359116 25:-0.1175308 26:0.79552065 27:-0.33002757 28:0.47269102 29:0.73437077 30:0.73779236 31:0.48910543 32:0.38262397 
9.4068892483331989 1:0.95115396 2:0.92516219 3:0.84785612 4:0.76476751 5:0.84423919 6:0.82339934 7:0.84183396 8:0.77852148 9:0.58630485 10:0.66640054 11:0.7639087 12:0.87502316 13:0.84145703 14:0.71850387 15:0.84891074 16:0.65011941 17:0.37479976 18:0.28776586 19:0.45067406 20:0.7913394 21:0.55832243 22:-0.13269538 23:-0.68906645 24:-0.16465724 25:-0.28063055 26:0.0070204734 27:0.58847723 28:0.66076152 29:0.55975052 30:0.28896941 31:-0.05616136 32:-0.64618289 
-6.0781295386251104 1:0.98448527 2:0.99401509 3:0.99335217 4:0.9841032 5:0.97865768 6:0.94633978 7:0.9381559 8:0.87262841 9:0.94581283 10:0.84337772 11:0.68599803 12:0.72729493 13:0.18815429 14:0.71394217 15:0.90231007 16:0.68767987 17:0.20963039 18:0.50878878 19:0.065610935 20:0.34151783 21:0.68545336 22:0.6514035 23:-0.12244192 24:0.30889259 25:-0.098264066 26:-0.20778801 27:0.39645718 28:0.74909291 29:-0.010590275 30:0.047712252 31:0.38501903 32:0.04820792 
1.3780445236243042 1:0.18436144 2:0.29467533 3:0.84767736 4:0.97923235 5:0.83849583 6:0.87662496 7:0.98866327 8:0.9910738 9:0.99243755 10:0.94257981 11:0.61069601 12:0.85188204 13:0.40411786 14:-0.33903451 15:0.90374777 16:0.92714728 17:0.96509248 18:0.70559903 19:0.78288505 20:0.76917758 21:0.064805415 22:0.36209899 23:0.4584087 24:-0.79295267 25:-0.77961332 26:0.47325766 27:-0.012565356 28:0.73131511 29:0.90497584 30:0.83838509 31:0.64111004 32:0.73538971 
4.5620118745602802 1:0.9793831 2:0.99298342 3:0.99221605 4:0.98160136 5:0.97065674 6:0.88327007 7:0.82988948 8:0.78450911 9:0.92279926 10:0.81090946 11:0.58446349 12:0.59213569 13:0.15164081 14:0.64828671 15:0.87479928 16:0.68856945 17:0.16495648 18:0.63076461 19:0.36029125 20:0.77157022 21:0.94327301 22:0.84402962 23:-0.22781765 24:0.075786643 25:-0.10159664 26:-0.30743221 27:0.43586173 28:0.66774091 29:-0.029521752 30:0.069378634 31:0.4222376 32:0.060385336 
0.7072554071707825 1:0.13166232 2:0.18414318 3:0.81163409 4:0.96421648 5:0.9339718 6:0.91809016 7:0.98617209 8:0.99583112 9:0.88660109 10:0.64790276 11:-0.22785746 12:-0.5215043 13:0.29000041 14:0.4527309 15:0.91559809 16:0.98657735 17:0.24244318 18:0.13366052 19:0.75156411 20:0.4986319 21:0.52743451 22:0.90301634 23:0.87897874 24:0.27794527 25:0.3070742 26:0.84371699 27:-0.53442677 28:0.2725667 29:0.79730526 30:0.74202945 31:0.44377537 32:0.40612733 
6.220205378390486 1:0.93958321 2:0.98342631 3:0.98996291 4:0.98739084 5:0.96305581 6:0.76059295 7:0.82793086 8:0.8647558 9:0.93755396 10:0.94871907 11:0.83546498 12:0.28959359 13:0.17822605 14:0.26363869 15:0.022871361 16:-0.097320757 17:-0.025336152 18:-0.13005983 19:-0.15612762 20:0.091542714 21:0.20364196 22:-0.12759732 23:-0.12761702 24:0.17116105 25:0.060744441 26:0.38795116 27:0.81078546 28:0.61762417 29:0.034818303 30:0.32666204 31:0.24839244 32:-0.16681338 
2.4629173199616301 1:0.30249121 2:0.80079777 3:0.97061778 4:0.98619565 5:0.9577318 6:0.9624284 7:0.94223104 8:0.89269961 9:0.78075322 10:0.65309332 11:0.44875258 12:0.24582942 13:0.17771215 14:0.1155125 15:0.42725284 16:0.42043333 17:0.36880537 18:0.22869304 19:0.01898487 20:-0.1603921 21:0.71895374 22:0.41859673 23:-0.43927892 24:-0.27826113 25:-0.096726338 26:-0.46987342 27:0.55954493 28:0.71702072 29:0.35095821 30:0.29812291 31:0.26070422 32:-0.40910314 
1.9666912717500975 1:0.87901476 2:0.96300841 3:0.94226405 4:0.80572417 5:0.98785775 6:0.87823249 7:0.85457279 8:0.71456991 9:0.42087071 10:0.23074536 11:-0.55193558 12:0.82609477 13:0.98274984 14:0.9256752 15:0.75184796 16:0.52395557 17:0.74664954 18:0.42642929 19:0.29841479 20:-0.73605884 21:-0.15999065 22:0.15524317 23:-0.63738809 24:0.4720881 25:-0.28037673 26:-0.8645375 27:0.15332657 28:0.47365109 29:-0.2005934 30:-0.6383348 31:-0.2618309 32:-0.098936071 
2.0325620754367288 1:0.97654429 2:0.95721081 3:0.25437995 4:0.26160827 5:-0.10775205 6:-0.066959714 7:-0.03942102 8:0.29039637 9:0.14009849 10:0.37090176 11:0.84378628 12:0.95933493 13:0.93181576 14:0.77577458 15:0.47037933 16:-0.048253974 17:0.82383183 18:0.79651942 19:0.69139333 20:0.76019305 21:0.3624684 22:-0.45279712 23:-0.58083547 24:-0.75036872 25:-0.39547792 26:-0.038903935 27:0.0073375875 28:0.017925708 29:0.022833524 30:-0.0091725502 31:-0.31230915 32:-0.93302231 
-0.18582807838883225 1:0.95242176 2:0.98733198 3:0.99159551 4:0.98428029 5:0.94165737 6:0.75642681 7:0.82313031 8:0.84952096 9:0.92834229 10:0.94308874 11:0.86215695 12:0.23689734 13:0.14443134 14:0.256399 15:0.098721473 16:-0.004706295 17:-0.0055691303 18:-0.21435652 19:-0.32152287 20:-0.20735525 21:0.70660471 22:0.60113411 23:-0.14941167 24:0.39283395 25:0.29401504 26:0.53669379 27:0.83783969 28:0.6856423 29:0.012170069 30:0.28588781 31:0.21487747 32:-0.43467421 
15.473560350214063 1:0.31369647 2:0.82420715 3:0.9706535 4:0.98868584 5:0.93634434 6:0.9455035 7:0.92889568 8:0.82952654 9:0.63617273 10:0.64579867 11:0.42054201 12:0.20078042 13:0.23170715 14:0.32618693 15:0.47107266 16:0.38841179 17:0.43544804 18:0.23717603 19:0.12902065 20:0.055157057 21:0.44257527 22:0.54103405 23:0.11002462 24:0.075251423 25:0.031139455 26:-0.14466801 27:0.46464845 28:0.67696569 29:0.3675283 30:0.27090367 31:0.14003954 32:-0.40166368 
8.0385309395852165 1:0.98243981 2:0.99324749 3:0.98999728 4:0.98436728 5:0.98234363 6:0.95897011 7:0.96317824 8:0.899951 9:0.91674631 10:0.71481864 11:0.66273113 12:0.67679196 13:0.35503356 14:0.78477009 15:0.68996233 16:0.41536087 17:0.16648654 18:0.36583605 19:0.16899414 20:0.40482158 21:0.33843022 22:0.060629854 23:0.002213875 24:0.11245625 25:-0.30566023 26:-0.0026756175 27:0.34209386 28:0.55536 29:-0.14506257 30:0.017193275 31:0.42644365 32:0.049711533 
0.91433018870292015 1:0.88788206 2:0.96589258 3:0.94973424 4:0.81284063 5:0.98925291 6:0.90441129 7:0.89389123 8:0.7315476 9:0.54624469 10:0.42141627 11:-0.50433795 12:0.84632537 13:0.99130821 14:0.93689839 15:0.81032288 16:0.78951309 17:0.44864667 18:-7.5180022e-05 19:0.11500989 20:-0.73113135 21:-0.36096485 22:-0.08649485 23:-0.47372443 24:0.44776834 25:-0.33397847 26:-0.87171752 27:0.1023444 28:0.44732125 29:-0.06211699 30:-0.6087776 31:-0.30023861 32:-0.12498135 
4.1280272779868037 1:0.94853466 2:0.98578854 3:0.96437973 4:0.91596102 5:0.9851789 6:0.98775934 7:0.89316651 8:0.92882226 9:0.96265236 10:0.95090117 11:0.86066766 12:0.22513785 13:0.94397038 14:0.862091 15:0.89784052 16:0.91671201 17:0.68296828 18:0.79648432 19:0.92537905 20:0.933402 21:0.19320231 22:-0.55558322 23:-0.134754 24:0.25566544 25:0.41535677 26:-0.49885767 27:-0.81936562 28:0.45046361 29:0.5588102 30:-0.60485208 31:-0.27799579 32:-0.057537393 
4.9499745599075506 1:0.16472318 2:0.25793547 3:0.83496847 4:0.9772959 5:0.87944931 6:0.90419509 7:0.98739345 8:0.98860117 9:0.99136658 10:0.98065198 11:0.82052621 12:0.84611161 13:0.47077702 14:0.57357944 15:0.94314742 16:0.35648416 17:-0.30164893 18:0.27790136 19:0.86442476 20:0.90025258 21:0.56453099 22:0.9598277 23:0.87453187 24:0.61229146 25:0.65709989 26:0.26146721 27:-0.60588232 28:0.36681683 29:0.8684202 30:0.78674304 31:0.58128228 32:0.59926458 
-0.020325307433404671 1:0.21604803 2:0.32120918 3:0.8429434 4:0.97014294 5:0.92360707 6:0.91478457 7:0.98030728 8:0.98964974 9:0.97074513 10:0.90001752 11:-0.40045764 12:-0.59475223 13:0.31198306 14:0.067836819 15:0.75800292 16:0.95974438 17:0.083415257 18:-0.31712768 19:0.36635873 20:0.4955638 21:-0.087391097 22:0.81846906 23:0.70944978 24:0.10073424 25:0.27640777 26:0.85783821 27:-0.075306326 28:0.43429667 29:0.77865693 30:0.71674551 31:0.44068536 32:0.39636641 
3.3778039051752966 1:0.98077353 2:0.97214488 3:0.79048065 4:0.74593635 5:0.56769791 6:0.56418849 7:0.64665107 8:0.75611098 9:0.77084112 10:0.65880292 11:0.54476734 12:0.54926452 13:0.68359922 14:0.78481105 15:0.55999445 16:0.25322402 17:0.29258357 18:0.27913429 19:0.17400587 20:-0.0077617868 21:0.016404876 22:-0.0513873 23:-0.25481558 24:-0.15563899 25:-0.23325468 26:-0.017387418 27:0.25741755 28:0.37632325 29:0.63970494 30:0.63087711 31:0.40639262 32:0.49705969 
0.1794993428512881 1:0.88412511 2:0.96661273 3:0.94935941 4:0.81029129 5:0.99108383 6:0.93300891 7:0.88293072 8:0.7222006 9:0.6641802 10:0.61419729 11:-0.52760642 12:0.87208771 13:0.99455861 14:0.94216704 15:0.80143478 16:0.67340771 17:0.27747142 18:-0.01287459 19:0.020551955 20:-0.79504178 21:0.15714654 22:0.36987169 23:-0.23355777 24:0.3153813 25:-0.47445773 26:-0.9231184 27:0.17800837 28:0.43552722 29:-0.22249419 30:-0.69130749 31:-0.31769929 32:-0.12522193 
3.9899794543822691 1:0.16364998 2:0.25874712 3:0.83625057 4:0.97712003 5:0.86851219 6:0.89869202 7:0.98864955 8:0.99142197 9:0.99287173 10:0.97487131 11:0.78297859 12:0.84035128 13:0.45130542 14:0.506274 15:0.9756821 16:0.29461672 17:-0.11287464 18:-0.070892797 19:0.84409933 20:0.3198088 21:-0.73488505 22:0.74353888 23:0.8308732 24:-0.18586233 25:0.0854818 26:0.19782987 27:-0.42773296 28:0.69077703 29:0.84099139 30:0.78897203 31:0.60563691 32:0.60827791 
0.90180057215295917 1:0.97615589 2:0.97401509 3:0.77217235 4:0.84221026 5:0.43217921 6:0.051852626 7:-0.31116546 8:0.24174552 9:0.18438051 10:0.29678773 11:0.71849831 12:0.96048194 13:0.94178462 14:0.78406608 15:0.47642054 16:0.017581104 17:0.86681957 18:0.87503394 19:0.72348921 20:0.54193585 21:0.54079781 22:-0.42988118 23:-0.70058548 24:-0.74662854 25:-0.069589027 26:0.11382741 27:0.0054783215 28:0.011359658 29:0.016217578 30:-0.011021366 31:-0.19730301 32:-0.7548538 
-1.4770226847212573 1:0.97415614 2:0.9811732 3:0.89129183 4:0.82846756 5:0.62500295 6:0.67609756 7:0.82420261 8:0.79987043 9:0.79476166 10:0.6649795 11:0.64051139 12:0.56577816 13:0.56081869 14:0.67033596 15:0.50759847 16:0.27393581 17:0.28379781 18:0.2197032 19:0.16621468 20:-0.13781409 21:0.063250409 22:-0.070271641 23:-0.17790876 24:-0.14164736 25:-0.25367025 26:-0.20165204 27:0.13315875 28:0.48286693 29:0.58512774 30:0.55476163 31:0.20542073 32:0.10990398 
1.5720358092514854 1:0.69973972 2:0.79806126 3:0.63668185 4:0.24959957 5:0.17221262 6:0.25388999 7:0.42613567 8:0.56041221 9:0.41987739 10:-0.25493817 11:-0.56211091 12:0.63738611 13:0.86670942 14:0.88136535 15:0.85822783 16:0.62501207 17:0.76708189 18:0.83771268 19:0.73288518 20:-0.36074168 21:0.28325369 22:0.70515195 23:0.24467149 24:0.013074196 25:-0.034983023 26:-0.48793557 27:-0.58097841 28:-0.5672613 29:-0.55997329 30:-0.38382678 31:0.52733218 32:0.56852244 
0.54025785601523735 1:0.93168262 2:0.97938325 3:0.96292819 4:0.92404083 5:0.98656683 6:0.98686036 7:0.93760889 8:0.86627256 9:0.78593664 10:0.36308231 11:0.71656206 12:0.91314573 13:0.50662183 14:-0.080746936 15:0.89790005 16:0.92087353 17:0.81667432 18:-0.43340525 19:-0.24801432 20:-0.87137318 21:-0.42899222 22:-0.71592397 23:-0.50994709 24:0.09102158 25:-0.73107925 26:-0.59212682 27:0.33362197 28:0.33031668 29:-0.38483828 30:-0.55757884 31:-0.24482213 32:-0.075394561 
1.4055450161210314 1:0.75825498 2:0.7778173 3:0.68660202 4:0.72206906 5:0.64066738 6:0.31682624 7:0.3234499 8:0.42524269 9:-0.0083367696 10:-0.44313724 11:-0.39703935 12:-0.19264869 13:-0.51171644 14:0.27146271 15:0.74555664 16:0.28998649 17:0.76614512 18:0.73531068 19:0.26511621 20:0.34159303 21:-0.24886265 22:-0.35504919 23:-0.7906989 24:-0.036025256 25:-0.20871812 26:-0.86899648 27:-0.45251572 28:0.37968809 29:0.1291111 30:0.055107157 31:0.76670357 32:0.64050798 
1.607552319484197 1:0.99469128 2:0.98708652 3:0.72687796 4:0.73523218 5:0.31180703 6:0.024594919 7:0.59254459 8:0.76864214 9:0.62322765 10:0.72102491 11:0.82726223 12:0.81142805 13:0.47569778 14:0.49153415 15:0.79611869 16:0.55984142 17:0.10418442 18:0.24372112 19:0.2031967 20:-0.29783009 21:0.039676212 22:0.2673365 23:-0.0084982673 24:-0.20125863 25:-0.50570098 26:-0.1759251 27:-0.016804549 28:0.23558275 29:0.19255966 30:-0.17558934 31:-0.087369505 32:-0.44032351 
6.3126875644552909 1:0.9444319 2:0.97663175 3:0.98494399 4:0.95083687 5:0.62975732 6:0.52761303 7:0.55899017 8:0.64042489 9:0.63414779 10:0.3903957 11:-0.22316673 12:0.44163901 13:0.4951619 14:0.4789124 15:0.20127877 16:0.21102092 17:0.48146352 18:0.60064963 19:0.79157316 20:0.33059564 21:0.14139641 22:0.12285541 23:0.30622396 24:0.0075594801 25:-0.39940594 26:-0.41100296 27:-0.24327344 28:-0.34092824 29:-0.16322602 30:-0.058470105 31:0.73628215 32:0.75280676 
-0.1525833884527498 1:0.19887073 2:0.31836993 3:0.84978979 4:0.97724762 5:0.83128321 6:0.86577499 7:0.98763817 8:0.98993236 9:0.96592698 10:0.95509217 11:-0.53164918 12:-0.55025766 13:0.35631821 14:0.17388839 15:0.81742985 16:0.91721323 17:0.41133278 18:0.29474404 19:0.85015503 20:0.51905486 21:-0.46313055 22:-0.53586764 23:0.34702043 24:0.39461521 25:-0.18191274 26:0.72217841 27:-0.39699345 28:0.49591061 29:0.77122415 30:0.77500988 31:0.46887154 32:0.35824026 
-3.2263550990316778 1:0.18129089 2:0.78891403 3:0.97170608 4:0.99193265 5:0.93612642 6:0.94662884 7:0.93581861 8:0.84416572 9:0.67798628 10:0.65206393 11:0.50056187 12:0.330503 13:0.28934548 14:0.30246028 15:0.55350323 16:0.45077501 17:0.34652829 18:0.16938876 19:0.32555281 20:0.22854903 21:0.54690657 22:0.5568933 23:0.17900982 24:-0.049597913 25:-0.023846318 26:-0.17691346 27:0.39945006 28:0.61610147 29:0.18984488 30:0.2835446 31:0.24901724 32:-0.30763852 
-0.74230266225160646 1:0.98346783 2:0.92706738 3:0.30286683 4:0.36788212 5:-0.020708172 6:0.039096647 7:0.20084214 8:0.56294237 9:0.81122255 10:0.66393676 11:0.71416858 12:0.67551284 13:0.82918018 14:0.71366036 15:0.45237399 16:-0.087943632 17:0.82345258 18:0.81364741 19:0.56382503 20:0.5470422 21:0.73236533 22:-0.2903665 23:-0.68544414 24:-0.45562736 25:-0.2945581 26:-0.12362663 27:0.0018921146 28:0.019824588 29:0.023131162 30:-0.0097425525 31:-0.26427897 32:-0.90228557 
3.1269798813135101 1:0.97803038 2:0.985459 3:0.89272781 4:0.81530419 5:0.64041825 6:0.7381726 7:0.81663885 8:0.80571171 9:0.73333709 10:0.64673301 11:0.57029972 12:0.60062586 13:0.67776365 14:0.73279665 15:0.55816324 16:0.29382154 17:0.42400474 18:0.21662202 19:0.20915232 20:0.22205246 21:0.05256172 22:0.12312176 23:0.02684737 24:0.068513076 25:-0.16156847 26:-0.14187287 27:0.12805049 28:0.29222696 29:0.5927991 30:0.52064617 31:0.063705749 32:-0.085125329 
6.8254663845291139 1:0.9626577 2:0.94543889 3:0.79693019 4:0.73406838 5:0.57081866 6:0.59021811 7:0.7470471 8:0.8152628 9:0.7078339 10:0.65442712 11:0.63082595 12:0.57439051 13:0.63995317 14:0.77551421 15:0.59558959 16:0.26565912 17:0.19314959 18:0.19444849 19:0.30449246 20:0.00605178 21:-0.087262249 22:-0.23725154 23:-0.27415311 24:0.046822754 25:-0.036911266 26:-0.1000419 27:0.062562343 28:0.37992385 29:0.55419383 30:0.45351046 31:0.063759417 32:-0.10368798 
0.018012947324358531 1:0.99125779 2:0.94071343 3:0.4263157 4:0.2661111 5:0.22524258 6:-0.31567141 7:0.47769653 8:0.61953231 9:0.66307342 10:0.74652441 11:0.83100825 12:0.72287686 13:0.28189489 14:0.32121836 15:0.70908665 16:0.58605977 17:0.24867119 18:0.45726176 19:0.48776789 20:-0.51301193 21:-0.82888498 22:-0.69186553 23:-0.22871292 24:-0.19532631 25:-0.41955561 26:-0.15889109 27:0.041553052 28:0.14645526 29:-0.11519235 30:0.023015425 31:-0.062478103 32:-0.45962653 
-0.57104858887481214 1:0.32960565 2:0.3454885 3:0.87460738 4:0.98569927 5:0.99039866 6:0.90013856 7:0.90720205 8:0.71725567 9:0.69500664 10:0.70082967 11:0.10497419 12:0.67148876 13:0.25273763 14:-0.61753654 15:-0.56072189 16:0.58346596 17:0.89810438 18:0.8961781 19:-0.78009234 20:-0.70310739 21:0.96394394 22:0.91190155 23:0.0040688978 24:-0.30924504 25:-0.11982025 26:0.60032103 27:0.64157626 28:0.82372542 29:0.82389278 30:0.90233828 31:0.33566375 32:-0.42592114 
-0.79092820011411369 1:0.75345469 2:0.83807685 3:0.76373419 4:0.69931736 5:0.64656737 6:0.48738393 7:0.28287062 8:0.20808486 9:0.22732447 10:-0.22961208 11:-0.36264287 12:-0.11506169 13:-0.48247117 14:0.15173688 15:0.6271882 16:0.52309775 17:0.87858069 18:0.68525784 19:0.25278762 20:0.32731122 21:-0.14639872 22:-0.10714418 23:-0.63730187 24:-0.029633154 25:-0.24584467 26:-0.84584869 27:-0.49990697 28:0.31691197 29:0.15438331 30:-0.034107122 31:0.76808652 32:0.64652033 
0.20870267102291248 1:0.80570594 2:0.8384277 3:0.69603856 4:0.63647262 5:0.57136407 6:0.44126073 7:-0.017029454 8:0.27892809 9:0.53375315 10:-0.24752687 11:-0.3976409 12:0.034900373 13:-0.2884844 14:0.23009122 15:0.67308779 16:0.60692489 17:0.89680647 18:0.71676399 19:0.34541104 20:0.31878783 21:-0.27329726 22:-0.11446279 23:-0.68169672 24:0.077690262 25:-0.055367982 26:-0.90374458 27:-0.38076042 28:0.47910801 29:0.14976773 30:0.0012562656 31:0.7498063 32:0.63248749 
-6.0216263034308861 1:0.56551147 2:0.60505413 3:0.91094986 4:0.99401263 5:0.96176328 6:0.97551224 7:0.99263816 8:0.84789662 9:0.8046458 10:0.88175437 11:0.73601118 12:0.88358279 13:0.76261588 14:0.45032606 15:0.61468443 16:0.38846501 17:0.21675815 18:0.27891911 19:-0.10275706 20:-0.4608373 21:-0.10135442 22:0.243331 23:0.5749609 24:0.73464581 25:0.091464175 26:0.32036759 27:0.39228792 28:0.66878519 29:0.91635608 30:0.88637472 31:0.28124567 32:-0.046320582 
0.25259699743405106 1:0.63133076 2:0.78768249 3:0.57187638 4:0.3489732 5:0.26769753 6:0.36311788 7:0.28064667 8:0.29631716 9:0.33238768 10:-0.55581054 11:-0.66001426 12:-0.40749457 13:0.31434023 14:0.84763753 15:0.8807492 16:0.83666729 17:0.84523791 18:0.33372975 19:0.10757573 20:0.76960668 21:0.28920781 22:-0.51386022 23:-0.25954676 24:-0.013110939 25:-0.16335379 26:-0.41037868 27:-0.49419277 28:-0.1975889 29:0.1271197 30:-0.24607565 31:0.5169414 32:0.56854474 
-0.50993053828724211 1:0.79061621 2:0.95295712 3:0.98011743 4:0.94198229 5:0.76658538 6:0.6725146 7:0.62895125 8:0.51196454 9:0.22739053 10:0.24980535 11:-0.25785791 12:0.25093362 13:0.44469057 14:0.61844376 15:0.41933909 16:0.22680794 17:0.7116028 18:0.58700379 19:0.44866376 20:0.080166317 21:0.068559672 22:0.38394472 23:-0.40132417 24:-0.52737366 25:-0.4106114 26:-0.41891776 27:-0.20398753 28:-0.40264107 29:-0.17667492 30:-0.35746181 31:0.6837314 32:0.73030503 
1.8015272865112497 1:0.45824659 2:0.46870099 3:0.87899365 4:0.99021229 5:0.97381771 6:0.9884665 7:0.99229247 8:0.9845815 9:0.98884408 10:0.61253282 11:0.3574574 12:0.87796862 13:0.97782021 14:0.69825145 15:0.47382116 16:0.94168606 17:0.40936839 18:0.61266324 19:0.89693086 20:0.66859396 21:-0.68053791 22:-0.87337725 23:-0.75730387 24:-0.29628666 25:0.5648195 26:0.22727479 27:0.10587881 28:0.41884362 29:0.58273909 30:0.79129651 31:0.6236817 32:0.080997383 
-5.7295395349839229 1:0.90580604 2:0.97715509 3:0.97435678 4:0.90404182 5:0.63732315 6:0.58484157 7:0.5563459 8:0.57710727 9:0.65555123 10:0.38552702 11:-0.26022176 12:0.29542407 13:0.55211054 14:0.53452392 15:0.25747984 16:0.32651169 17:0.80258548 18:0.7884761 19:0.67824645 20:0.33578051 21:0.16630431 22:0.11147686 23:0.31095669 24:0.14965951 25:-0.38231468 26:-0.51073547 27:-0.33485053 28:-0.37007928 29:-0.17527447 30:0.22172665 31:0.78475469 32:0.7666025 
-2.3071369695235107 1:0.25370505 2:0.37987051 3:0.85879646 4:0.97599995 5:0.89978985 6:0.90181734 7:0.98814976 8:0.99042743 9:0.95568488 10:0.83560115 11:-0.09989933 12:-0.497996 13:0.7253961 14:0.79299964 15:0.95923782 16:0.95587396 17:-0.086127294 18:-0.30256531 19:0.63919147 20:0.52595966 21:-0.38121854 22:-0.17201288 23:0.76170528 24:0.62365783 25:0.33345897 26:0.74156638 27:0.10083357 28:0.52129476 29:0.70509891 30:0.6687461 31:0.38824722 32:0.36412824 
-1.6198727217663387 1:0.098019103 2:0.77737326 3:0.96791889 4:0.98636466 5:0.92689896 6:0.9339231 7:0.84295529 8:0.7412866 9:0.64505503 10:0.58855076 11:0.33166966 12:0.15755689 13:0.069659719 14:-0.066886835 15:0.28664998 16:0.43522438 17:0.39895931 18:0.23363379 19:-0.1481608 20:-0.27591712 21:0.6629581 22:0.45578967 23:0.081231993 24:-0.61536762 25:-0.39463111 26:-0.37665916 27:0.36422387 28:0.72389956 29:0.27847351 30:0.39573365 31:0.37884345 32:-0.27599636 
-1.2734959410133231 1:0.65901912 2:0.72170586 3:0.70149594 4:0.27584357 5:0.14198627 6:-0.061260374 7:-0.27712467 8:0.24090611 9:0.56482969 10:-0.25087192 11:-0.34851971 12:0.56763509 13:0.86282388 14:0.89507165 15:0.84660691 16:0.4220786 17:0.66072171 18:0.58466071 19:0.26135996 20:-0.55369028 21:0.18313792 22:0.74670213 23:0.3723882 24:0.11161228 25:-0.046064545 26:-0.47108862 27:-0.58743874 28:-0.57772401 29:-0.49809248 30:-0.32400619 31:0.55089289 32:0.59470378 
0.77002681656436878 1:0.16594563 2:0.26145862 3:0.83432128 4:0.97558469 5:0.87633497 6:0.90423565 7:0.98705913 8:0.98867214 9:0.98830456 10:0.95486669 11:0.73225919 12:0.82265836 13:0.43826939 14:0.45370566 15:0.85637803 16:0.093145105 17:-0.13541469 18:-0.053578401 19:0.8299405 20:0.73483109 21:0.088421984 22:0.91730278 23:0.91016029 24:-0.34376442 25:-0.14342531 26:0.29592673 27:-0.29325371 28:0.61548945 29:0.86918866 30:0.8143095 31:0.63348185 32:0.67926413 
0.77323528678021991 1:0.98035855 2:0.99253108 3:0.98026357 4:0.95369352 5:0.9903174 6:0.9412732 7:0.41442713 8:0.44440662 9:-0.061520018 10:0.017182752 11:0.96598724 12:0.9237346 13:0.87398526 14:0.39124837 15:-0.48370827 16:0.92214415 17:0.74531372 18:0.79886661 19:0.24301591 20:-0.95028132 21:0.0074941916 22:0.30175368 23:-0.18285119 24:0.11231278 25:-0.30331243 26:0.52221981 27:0.057726894 28:-0.41011058 29:-0.59097879 30:-0.58039437 31:-0.36215735 32:-0.1228304 
-13.309112958469278 1:0.93594726 2:0.91644144 3:0.80133042 4:0.69654083 5:0.8409326 6:0.81195995 7:0.79146634 8:0.67401189 9:0.6407091 10:0.63644267 11:0.72707246 12:0.78010113 13:0.73698246 14:0.62194461 15:0.66227654 16:0.50547271 17:0.33094324 18:0.33357816 19:0.3995615 20:0.64703399 21:0.46689215 22:0.043266688 23:-0.50938932 24:-0.086497331 25:-0.14929509 26:-0.070805271 27:0.36464196 28:0.41717966 29:0.34086572 30:0.26953017 31:-0.039149087 32:-0.49088972 
-0.48194691430408537 1:0.81225784 2:0.85107888 3:0.6963813 4:0.66190861 5:0.5673102 6:0.4624281 7:0.38162535 8:0.19113503 9:0.025445555 10:-0.33266449 11:-0.24172682 12:-0.12242383 13:-0.56339859 14:-0.19715851 15:0.17158952 16:0.61377525 17:0.94048003 18:0.79772971 19:0.35892318 20:0.32637771 21:0.15482302 22:-0.23241964 23:0.29788728 24:0.74593437 25:0.013815372 26:-0.81652908 27:0.0057561033 28:0.56671786 29:0.1652683 30:-0.047115361 31:0.73206235 32:0.63336924 
-5.8808667162034576 1:0.19987621 2:0.31730356 3:0.8464047 4:0.97933875 5:0.87244154 6:0.89889078 7:0.98905861 8:0.9912506 9:0.99024709 10:0.96800473 11:0.69210782 12:0.8183249 13:0.44045339 14:0.49256685 15:0.88535361 16:0.26404302 17:-0.212447 18:0.1284166 19:0.92070616 20:0.67635439 21:0.22230472 22:0.91596823 23:0.8323555 24:-0.11006898 25:0.18358441 26:0.19625259 27:-0.32828624 28:0.57688796 29:0.86066418 30:0.81104443 31:0.6147562 32:0.64720519 
-4.1478378645415699 1:0.95674007 2:0.9884138 3:0.96775532 4:0.9232787 5:0.99172938 6:0.98834193 7:0.8887174 8:0.87022933 9:0.93964639 10:0.92338973 11:0.81826597 12:0.26582666 13:0.93507862 14:0.92113408 15:0.94467579 16:0.93661008 17:0.47534382 18:0.19560839 19:0.80659692 20:0.89277863 21:0.1015444 22:-0.60067997 23:-0.12096239 24:0.28081671 25:0.51832041 26:-0.29468378 27:-0.59083623 28:0.40946352 29:0.5455956 30:-0.57002306 31:-0.26257483 32:-0.060699462 
-3.1960978709940639 1:0.28552846 2:0.44185927 3:0.86069834 4:0.98130474 5:0.8535984 6:0.8943118 7:0.98993971 8:0.99153702 9:0.98747512 10:0.95500621 11:0.72640611 12:0.82012937 13:0.44937261 14:0.52048348 15:0.69144606 16:0.042294641 17:-0.36028998 18:0.15136031 19:0.90288088 20:0.70004905 21:0.085406671 22:0.72254234 23:0.68698098 24:0.61798586 25:0.7529663 26:0.20660756 27:-0.63109212 28:0.49453398 29:0.9100456 30:0.85081071 31:0.70623011 32:0.75598762 
-0.84182939572979165 1:0.79973026 2:0.8618794 3:0.58546584 4:0.29725507 5:0.16264952 6:0.018969192 7:0.24073944 8:0.35764025 9:0.14461328 10:-0.55282375 11:-0.69924301 12:0.1982715 13:0.90583707 14:0.94213777 15:0.7969896 16:0.48967212 17:0.75673488 18:0.53015634 19:-0.24020573 20:-0.49620552 21:0.091934125 22:0.47650663 23:-0.24804839 24:-0.048956005 25:0.26492948 26:0.21677771 27:-0.52776407 28:-0.42842094 29:0.27050909 30:-0.013090895 31:0.56315665 32:0.65635211 
-0.11357214383761714 1:0.33752813 2:0.80835959 3:0.97186463 4:0.97684801 5:0.94314652 6:0.87845179 7:0.7686903 8:0.70636379 9:0.52350712 10:0.50978209 11:0.35456862 12:0.17307598 13:0.077754429 14:0.030979915 15:0.23340051 16:0.35599063 17:0.40297168 18:0.1488154 19:0.1844693 20:0.14434182 21:0.50809941 22:0.50546445 23:-0.26219739 24:-0.31485404 25:-0.025975291 26:-0.31635135 27:0.39354798 28:0.61052757 29:0.34338169 30:0.30602691 31:0.2169365 32:-0.38296112 
-5.8416331037100351 1:0.97794687 2:0.99251505 3:0.99004593 4:0.98008295 5:0.97293844 6:0.90709953 7:0.93443674 8:0.95134626 9:0.96200657 10:0.82657789 11:0.56195474 12:0.63188784 13:0.14299137 14:0.28527863 15:0.44772943 16:0.46243116 17:0.32900431 18:-0.17349365 19:-0.41003237 20:0.11551541 21:-0.016046619 22:0.013015629 23:0.28630226 24:0.12713519 25:-0.11601887 26:0.365458 27:0.68121262 28:0.65637841 29:0.0046735048 30:0.027171554 31:0.34554468 32:0.0057269933 
-2.5699075243889657 1:0.90319623 2:0.96974768 3:0.94649495 4:0.80645056 5:0.98497479 6:0.92203153 7:0.84710452 8:0.64716536 9:0.61300202 10:0.41798319 11:-0.22922556 12:0.9232555 13:0.97947903 14:0.90314679 15:0.71501854 16:0.11838432 17:0.12082416 18:0.11976285 19:0.27036022 20:-0.3638996 21:-0.28128585 22:-0.18576286 23:-0.43013258 24:0.41152694 25:-0.23625464 26:-0.72550572 27:0.15429884 28:0.48725263 29:-0.27280017 30:-0.7213956 31:-0.34792372 32:-0.19639055 
0.37327098495042094 1:0.95636046 2:0.98195459 3:0.98345186 4:0.87287642 5:0.4316906 6:0.57530519 7:0.23478522 8:0.44943943 9:0.65161467 10:0.63453328 11:0.23672209 12:0.12023867 13:0.36793498 14:0.08926747 15:0.44725053 16:0.47786856 17:0.034712834 18:0.03586206 19:0.048765202 20:0.21523682 21:0.46595833 22:0.51294534 23:-0.1517411 24:-0.58009351 25:-0.2702588 26:-0.47723066 27:-0.1973749 28:-0.12148683 29:0.2190703 30:0.60047104 31:0.74276471 32:0.72715742 
-10.974237100782824 1:0.9777615 2:0.98173756 3:0.87965802 4:0.84064405 5:0.71832459 6:0.64896381 7:0.72954674 8:0.75093127 9:0.70962455 10:0.57313715 11:0.57037925 12:0.61786341 13:0.56431931 14:0.64152516 15:0.49580666 16:0.244666 17:0.090045021 18:0.19666215 19:0.32585516 20:0.18198508 21:0.14368933 22:-0.1560426 23:-0.27237139 24:0.031153278 25:-0.02285988 26:-0.10000929 27:0.081914822 28:0.39037858 29:0.46816588 30:0.4311677 31:0.11416906 32:0.0029734699 
-0.42681432732914126 1:0.97382962 2:0.98838342 3:0.96843125 4:0.92874264 5:0.98651226 6:0.96771511 7:0.83110102 8:0.63728303 9:0.57241059 10:0.55196676 11:0.76962837 12:0.94055533 13:0.55515836 14:-0.071810921 15:0.83416596 16:0.27386409 17:0.30939187 18:-0.0071266919 19:0.40113834 20:0.17872164 21:-0.084933775 22:-0.44425638 23:-0.767417 24:0.0067693927 25:-0.64269896 26:-0.56985937 27:0.3979234 28:0.40332947 29:-0.35899583 30:-0.65027141 31:-0.52125309 32:-0.21332854 
0.87193088625522008 1:0.96758694 2:0.98435111 3:0.98219874 4:0.90277316 5:0.87280584 6:0.59410715 7:0.43966643 8:0.25857447 9:0.56293228 10:0.62131225 11:0.59445954 12:0.67121338 13:0.37183713 14:0.47574337 15:0.22030066 16:0.21102107 17:0.25724181 18:-0.12640436 19:0.094433246 20:0.72265961 21:0.58500552 22:0.20081917 23:-0.14361747 24:0.15692092 25:0.053619315 26:0.082054771 27:0.53659471 28:0.78900391 29:0.66164366 30:0.33191062 31:-0.080994579 32:-0.73319568 
-0.67277619700129976 1:0.93990978 2:0.98614008 3:0.9919897 4:0.98426346 5:0.97030674 6:0.75333398 7:0.76513027 8:0.72537601 9:0.82643299 10:0.90853939 11:0.81854772 12:0.27568877 13:0.55841627 14:0.40604861 15:0.13126766 16:-0.12455175 17:-0.35886157 18:-0.33464332 19:0.15188433 20:-0.039251626 21:0.77359911 22:0.78309554 23:0.087832817 24:0.11425491 25:-0.25848958 26:-0.45162646 27:0.49236111 28:0.65857349 29:0.10839499 30:0.35900207 31:0.25800374 32:-0.4244092 
-0.37985144546866439 1:0.90829466 2:0.74988778 3:0.34124864 4:0.43741877 5:0.37243526 6:0.51331094 7:0.49401216 8:0.56117248 9:0.67232839 10:0.66048488 11:0.61706897 12:0.55532589 13:0.50583757 14:0.39186267 15:0.23423208 16:0.2668748 17:0.35163093 18:0.15110002 19:0.32233442 20:0.18185772 21:-0.066602002 22:-0.088361547 23:0.010008751 24:0.20063616 25:-0.10811065 26:-0.21572567 27:0.17497763 28:0.52220893 29:0.66291297 30:0.69141757 31:-0.029791233 32:-0.16310817 
-7.9916727067880862 1:0.34301161 2:0.80738683 3:0.97001588 4:0.9874864 5:0.94229527 6:0.93959602 7:0.93999841 8:0.82180747 9:0.65577534 10:0.64701763 11:0.43287799 12:0.36593033 13:0.33233895 14:0.34944352 15:0.48033516 16:0.19151866 17:0.088132511 18:0.056740362 19:0.076609316 20:0.1711261 21:0.35962508 22:0.42416344 23:0.29435933 24:-0.11587139 25:-0.29476434 26:-0.32770405 27:0.32592946 28:0.62358844 29:0.27468412 30:0.34564332 31:0.27494775 32:-0.37628043 
-1.2581031702018255 1:0.98095055 2:0.66221667 3:-0.47537729 4:-0.43385587 5:-0.15838719 6:0.55307847 7:0.59573476 8:0.093110839 9:0.35595153 10:0.63368992 11:0.38367349 12:0.52669498 13:0.7782107 14:0.67300633 15:0.45015824 16:0.14547737 17:0.88526392 18:0.91674548 19:0.79527249 20:0.12269932 21:-0.54985483 22:-0.4685825 23:-0.23496004 24:0.33047127 25:-0.27950454 26:-0.14392091 27:0.0011477927 28:0.023012807 29:0.026110762 30:-0.0060923843 31:-0.29324802 32:-0.91077794 
-1.2491753021160481 1:0.91097164 2:0.97395254 3:0.90816809 4:0.77522998 5:0.95320918 6:0.86306309 7:0.90204595 8:0.6362664 9:0.51644323 10:0.32317136 11:-0.58881463 12:0.83276682 13:0.93154269 14:0.8746712 15:0.75075385 16:0.52031765 17:0.88454674 18:0.86448614 19:0.63418572 20:0.95012989 21:0.84543224 22:0.62300234 23:0.077810606 24:0.40589026 25:0.36032105 26:-0.59661166 27:0.18455251 28:0.41580403 29:-0.43301747 30:-0.69822408 31:-0.28832459 32:-0.073435283 
0.81105587845622606 1:0.97290855 2:0.97437942 3:0.84029798 4:0.78174624 5:0.64975033 6:0.57769663 7:0.65323442 8:0.72577632 9:0.65513645 10:0.5391806 11:0.41602984 12:0.40614779 13:0.28533618 14:0.34299843 15:0.25968858 16:0.12769983 17:0.050751415 18:0.044321289 19:0.25226287 20:0.19692552 21:0.045615685 22:-0.21369805 23:-0.19940467 24:0.050084465 25:-0.15388628 26:-0.017612726 27:0.14032553 28:0.31124194 29:0.52553762 30:0.46186763 31:0.022293514 32:-0.19436681 
-0.69382007195706974 1:0.92098118 2:0.9798501 3:0.96104307 4:0.82010948 5:0.9876611 6:0.90392887 7:0.9027095 8:0.63401226 9:0.58487206 10:0.41059713 11:-0.56317573 12:0.25050768 13:0.70136787 14:0.78536122 15:0.76254881 16:0.68971895 17:0.68344204 18:0.21414634 19:0.8035602 20:0.88051746 21:0.7693614 22:-0.038903124 23:-0.4753554 24:0.55326826 25:0.21887423 26:-0.66911324 27:0.30350603 28:0.44206934 29:-0.2770007 30:-0.40204418 31:-0.10679084 32:-0.04259632 
-1.1788195569627264 1:0.99614486 2:0.99730514 3:0.96227595 4:0.96710903 5:0.39615422 6:-0.12071071 7:0.042978962 8:0.58862295 9:0.23725518 10:0.43360042 11:0.64027259 12:0.31332315 13:-0.25888044 14:0.033049535 15:0.21556911 16:0.49540115 17:0.38192298 18:0.38571742 19:0.48533987 20:0.54878873 21:0.30843369 22:0.069715779 23:0.10825551 24:-0.51390299 25:-0.53990274 26:-0.10828892 27:0.016689228 28:0.32816018 29:0.25675335 30:-0.098853947 31:-0.080914738 32:-0.47181582 
-3.2347116568891789 1:0.95078821 2:0.98780987 3:0.99163952 4:0.96677452 5:0.928681 6:0.53948152 7:0.51046285 8:0.25183631 9:-0.019339644 10:0.7003201 11:0.74808626 12:0.18384657 13:0.55186331 14:0.6848252 15:0.30030149 16:0.2812297 17:0.75091607 18:0.41786665 19:-0.46767466 20:-0.10317121 21:0.62430712 22:0.68043281 23:-0.178951 24:0.27409068 25:0.1860264 26:0.2683293 27:0.81525804 28:0.74077463 29:0.072927739 30:0.12792879 31:0.17644994 32:-0.44609241 
-1.5782491663572513 1:0.93881474 2:0.98339019 3:0.92307412 4:0.90799027 5:0.98815259 6:0.99002699 7:0.98279018 8:0.98009232 9:0.95105525 10:0.86713038 11:0.39066912 12:-0.65864621 13:0.035151099 14:0.92532528 15:0.85741217 16:0.18478943 17:-0.67772392 18:-0.48542233 19:-0.027066709 20:0.19749966 21:0.68642128 22:0.89282471 23:0.81220475 24:0.36399821 25:-0.15493563 26:0.17947345 27:-0.19829841 28:0.73265103 29:0.55027733 30:-0.54487748 31:-0.2154428 32:-0.034840377 
-1.4545336117682606 1:0.97989605 2:0.99249145 3:0.98672595 4:0.97237396 5:0.97821701 6:0.91361221 7:0.57077171 8:0.60105544 9:0.18700409 10:0.19206432 11:0.94712745 12:0.93887609 13:0.89741128 14:0.39519165 15:-0.50123063 16:0.63384358 17:0.53843 18:0.48632428 19:0.40942699 20:-0.39788591 21:-0.37765563 22:-0.051433319 23:-0.44300869 24:-0.3238363 25:-0.134066 26:0.48333424 27:0.081841113 28:-0.32140282 29:-0.60350424 30:-0.53572917 31:-0.25676197 32:-0.051551792 
-3.6034779296300026 1:0.43554288 2:0.84875193 3:0.95982028 4:0.97606321 5:0.79821805 6:0.77470162 7:0.69136041 8:0.63699991 9:0.51310339 10:0.51582929 11:0.33047528 12:0.1879354 13:0.12845815 14:0.14879262 15:0.23020493 16:0.17409868 17:0.095409785 18:-0.020548726 19:0.026609349 20:0.29019735 21:0.46313231 22:0.64003288 23:-0.29987749 24:-0.059124211 25:0.44114852 26:-0.33313147 27:0.54078253 28:0.73810242 29:0.42476504 30:0.35341882 31:0.28660817 32:-0.32383007 
-1.4150145398250453 1:0.99687145 2:0.9979589 3:0.96359191 4:0.96763562 5:0.42756797 6:-0.1576605 7:-0.28146854 8:-0.0017394205 9:-0.121822 10:0.44275319 11:0.71039964 12:0.55561229 13:0.1472844 14:-0.07679802 15:0.19101506 16:0.53984857 17:0.57828077 18:0.63452858 19:0.48392416 20:-0.53886031 21:-0.90755426 22:-0.68916743 23:-0.29499387 24:-0.38244519 25:-0.41269821 26:-0.15600678 27:-0.005840319 28:0.0064224745 29:-0.24622296 30:-0.21114714 31:-0.073978444 32:-0.43884681 
-0.54967609607557955 1:0.31661069 2:0.3382193 3:0.8778559 4:0.99134567 5:0.96801237 6:0.85076076 7:0.93581159 8:0.86380283 9:0.86868077 10:0.59440764 11:-0.33432476 12:0.48626084 13:0.47030243 14:0.47347889 15:0.52280106 16:0.029287365 17:-0.62657163 18:-0.35968467 19:0.088102251 20:0.58984732 21:0.63682444 22:0.61185371 23:-0.12622374 24:0.26607711 25:0.41599187 26:0.10456056 27:0.28606131 28:0.75777262 29:0.76212271 30:0.85981404 31:0.18997392 32:-0.41230259 
-3.7602159145576746 1:0.43491193 2:0.44558121 3:0.86308644 4:0.98869154 5:0.93389525 6:0.96828585 7:0.99029277 8:0.97397255 9:0.94174381 10:0.63700133 11:-0.14420408 12:0.48385729 13:0.86019201 14:0.60326607 15:0.39154596 16:0.71427503 17:0.26080401 18:0.27793151 19:0.71929564 20:0.46134077 21:-0.28491157 22:-0.15097659 23:-0.62914324 24:-0.53747803 25:0.099864115 26:0.43302943 27:0.32829273 28:0.4884653 29:0.65374303 30:0.7774637 31:0.53172097 32:0.31057655 
-2.1542925761523328 1:0.95570513 2:0.98495728 3:0.92403654 4:0.90792059 5:0.97612642 6:0.97737972 7:0.96708294 8:0.97098414 9:0.94195454 10:0.8651418 11:0.45180206 12:-0.51514891 13:0.47998408 14:0.78479771 15:0.51761482 16:0.34766686 17:0.59445904 18:0.40765733 19:0.92897731 20:0.91310751 21:0.14610727 22:-0.57422215 23:0.5096327 24:-0.005120068 25:0.036477185 26:0.77203462 27:0.73633274 28:0.51093249 29:0.22269148 30:-0.71885374 31:-0.53169208 32:-0.10832396 
